
\data\
ngram 1=9
ngram 2=4
ngram 3=2

\1-grams:
-1.00000	<s>	-0.14
-1.00000	</s>	-0.14
-5.734339	i	-0.15
-10.0000	you	-0.16
-11.0000	buy	-0.17
-12.0000	buying	-0.18
-13.0000	a	-0.19
-14.0000	an	-0.20
-15.0000	cat	-0.21

\2-grams:
-3.910327	i buy	-0.351469
-3.912761	buy you	-24
-3.876083	you a	-23
-0.002449189	a cat	-22

\3-grams:
-3	i buy you
-2	buy you a

\end\
